layer_0_weights,layer_0_biases,layer_1_weights,layer_1_biases,layer_2_weights,layer_2_biases
0.050580535,-0.025398988,0.17408411,-0.038681805,-0.28371271,0.32837686
0.25051776,-0.020228993,0.0770788,0.011935617,0.011663596,
0.07581475,0.053395778,0.02645793,0.03353808,0.056725565,
0.08958192,-0.07186646,-0.09090083,-0.03689912,-0.21801892,
0.1215983,0.09907012,-0.0019368959,-0.026229618,-0.02757169,
0.2480159,0.0507924,0.15916349,-0.040264588,-0.14756349,
-0.15938696,-0.035161056,0.19693652,0.0157399,0.018078933,
0.18071894,-0.008883407,-0.0780384,-0.03531192,-0.04725877,
0.281624,0.015993994,-0.24496001,0.025573326,0.16808529,
-0.15201615,0.058670513,0.008477793,0.0036851487,-0.002041183,
0.077424444,0.08366805,-0.17585641,-0.023835119,-0.09078469,
0.29207048,-0.008113076,0.009536513,-0.02206974,-0.16523534,
-0.23899354,0.03002157,0.043569475,-0.00058573997,-0.08651861,
-0.026951868,0.04279256,-0.13439035,-0.02566095,-0.23490036,
-0.21734415,-0.031062517,-0.018393667,-0.027733771,-0.14392166,
-0.31303596,-0.0024208028,-0.23452036,-0.0038170144,-0.082200356,
-0.12294802,-0.011648649,-0.17717257,-0.0033116122,-0.0061779427,
0.121444784,0.08406198,-0.050374147,0.055619106,0.12221489,
0.31957597,0.08992292,0.087547116,0.10121301,0.19010545,
-0.28881782,-0.013946606,-0.02324527,-0.033524938,-0.014690074,
0.17810103,-0.00759834,0.24073866,-0.023381613,-0.17638887,
-0.038008805,-0.019143056,-0.2387296,0.005786691,0.07664063,
0.10969073,-0.0074760146,-0.14663374,-0.031607155,-0.17186819,
0.022585152,0.06570289,0.06518597,0.009442005,0.03784868,
-0.18709375,-0.025654633,0.018748298,0.00707689,0.21607965,
0.11892185,-0.0015190571,0.084063955,-0.07091536,-0.08777376,
-0.08274465,-0.021682514,0.24575675,-0.013577302,-0.0503237,
-0.12484424,-0.012519166,0.24307239,-0.052395843,-0.08555074,
-0.19106533,0.027202772,0.17219424,0.0024656595,-0.1915343,
0.09570418,0.01977671,-0.10283889,0.04144227,0.091888346,
0.09924922,0.0011193982,0.16143763,0.040965345,0.06652737,
-0.2685642,-0.021760019,-0.24993345,-0.013559247,-0.16294375,
-0.106218554,,0.24817693,0.0,0.16949984,
-0.1811217,,-0.15093353,0.08694469,0.23813385,
0.21003063,,-0.01811244,0.011949758,0.041873552,
-0.25525308,,0.046929713,-0.0339943,-0.15811162,
-0.10670913,,-0.025425754,0.061231863,0.18096137,
-0.19149934,,0.05141172,-0.014130494,-0.005482366,
-0.30046633,,0.22073212,-0.02567472,-0.012232157,
-0.097635664,,0.16648898,-0.054461867,-0.14252469,
0.15554507,,0.15672697,-0.0372452,-0.18278746,
0.26693198,,-0.15066344,0.11548021,0.3551559,
0.116797104,,-0.07731386,-0.045670867,-0.19060513,
0.03797713,,0.14502302,-0.07645991,-0.08873971,
-0.20627776,,-0.001416835,-0.003846478,0.031462867,
0.17548843,,-0.01925077,0.008592106,0.043909986,
-0.04161409,,-0.13213806,0.00013037997,0.0061081205,
0.16265719,,0.12440669,0.0047253445,0.10196561,
-0.13213606,,0.13428545,0.0017808723,0.006141225,
0.099321134,,-0.087369785,-0.028396793,-0.25176182,
0.33628666,,0.2180535,0.029128013,0.050394583,
-0.3134318,,-0.19945289,-0.028208846,0.13315941,
-0.3005582,,-0.20969036,-0.038503513,-0.17471445,
-0.25425252,,-0.0379632,-4.1673422e-05,0.012287043,
0.19476168,,-0.11743463,-0.011666177,-0.022600729,
-0.0831635,,0.24753618,0.042073835,0.07394523,
-0.14625733,,0.022846896,0.016197206,-0.2124215,
0.13696964,,0.15463951,-0.045931246,0.20760232,
0.14518034,,0.049654868,-0.044770963,-0.12331591,
-0.25701526,,0.1926781,-0.0038117934,-0.008416783,
0.10182281,,0.2053854,-0.02686136,0.22758444,
-0.0635046,,0.18925612,-0.039877143,-0.09738564,
-0.18996857,,0.116584584,0.00032531525,0.23639555,
0.26665828,,-0.044564575,0.01949543,-0.0094388155,
0.18172286,,0.073109,,,
0.109416485,,0.12720053,,,
-0.1832023,,0.043654256,,,
0.09951823,,0.061799362,,,
-0.16199042,,0.2014875,,,
-0.26211083,,0.009534656,,,
-0.30726367,,0.12136941,,,
-0.31385407,,-0.078267,,,
-0.0146640865,,0.122108124,,,
-0.047382053,,0.14737248,,,
-0.09480565,,-0.13135153,,,
0.118472576,,0.016652359,,,
0.18427521,,-0.21345593,,,
0.16700208,,-0.09855057,,,
0.2793144,,0.06458601,,,
-0.02430143,,0.0717356,,,
-0.15023214,,0.1693694,,,
0.31985644,,-0.022825487,,,
0.16841279,,-0.16388558,,,
-0.07145668,,0.2155361,,,
-0.014475111,,-0.08329628,,,
0.20391354,,-0.048434492,,,
0.25021163,,-0.1427538,,,
0.1548253,,-0.23903537,,,
-0.13068417,,0.066130206,,,
-0.23694599,,0.15195633,,,
-0.27881727,,0.16748746,,,
-0.23200153,,0.044767395,,,
-0.20736787,,-0.14518018,,,
-0.0884638,,-0.0053466046,,,
0.24579185,,0.009867012,,,
-0.22506803,,0.048046473,,,
-0.23447062,,-0.1183005,,,
0.24746963,,-0.062485386,,,
-0.13448343,,0.1959674,,,
0.24363133,,0.039665043,,,
0.28527185,,0.09846059,,,
-0.20637697,,0.21945536,,,
0.06930846,,-0.06538014,,,
0.08683764,,0.15022482,,,
-0.05280778,,0.15962698,,,
0.0070205,,0.14839077,,,
-0.1548543,,-0.021121008,,,
-0.1968912,,0.16306481,,,
-0.044503342,,-0.18173401,,,
0.33939597,,0.1293249,,,
-0.2229638,,0.2017714,,,
-0.23204474,,0.117197275,,,
0.09613559,,-0.12994897,,,
0.14694221,,-0.0795419,,,
0.19057973,,0.20025842,,,
-0.11537245,,0.064344004,,,
-0.0031652711,,0.05213907,,,
0.14115986,,0.012372416,,,
0.19920552,,0.18103416,,,
0.22045983,,-0.19079594,,,
-0.10832019,,0.049074598,,,
0.1736152,,0.08233532,,,
0.28436944,,0.16688521,,,
-0.15274502,,-0.05150624,,,
0.2344436,,-0.19881023,,,
-0.23654425,,0.117097415,,,
-0.22443426,,-0.22379221,,,
0.18658355,,0.069604576,,,
-0.23115373,,-0.23853719,,,
-0.06056009,,-0.09250542,,,
0.32136664,,0.11368309,,,
-0.23757942,,-0.13333198,,,
-0.009027105,,0.037553184,,,
-0.015479783,,0.028911917,,,
0.16948165,,-0.06205787,,,
-0.0802861,,0.078986794,,,
0.23401451,,-0.19523734,,,
-0.2835982,,-0.19687636,,,
0.060784522,,-0.016246786,,,
0.28503126,,-0.12340375,,,
-0.24794073,,0.22219355,,,
-0.14225726,,-0.16659188,,,
-0.07321365,,-0.19188082,,,
0.18232667,,0.097307496,,,
-0.19697805,,-0.1583011,,,
-0.20394577,,0.18215652,,,
-0.122535124,,0.08740571,,,
-0.10105739,,-0.24377304,,,
-0.14833114,,0.18660365,,,
-0.04455413,,0.20981273,,,
-0.089176275,,0.10523744,,,
0.04123978,,-0.06929727,,,
0.16617192,,-0.21437688,,,
0.24748673,,-0.057338882,,,
-0.12671733,,0.054171167,,,
-0.017448543,,0.049717985,,,
-0.127995,,0.0076298057,,,
0.12146024,,0.09132081,,,
-0.28597274,,-0.13911864,,,
-0.13704146,,0.08039863,,,
-0.18630238,,-0.21706408,,,
0.11504267,,-0.24081679,,,
-0.1882234,,0.061773755,,,
-0.13214749,,0.074368745,,,
0.099212185,,0.14639066,,,
-0.03650198,,0.15833414,,,
0.23405081,,-0.16917072,,,
0.30554226,,-0.15810739,,,
0.30195647,,-0.22438501,,,
0.30045956,,-0.06651259,,,
-0.083017826,,-0.1680368,,,
-0.17670268,,-0.16288157,,,
0.31250313,,0.09002268,,,
0.22643238,,-0.1571274,,,
-0.16917191,,-0.24192467,,,
0.2835052,,-0.21489877,,,
0.12659843,,-0.08909945,,,
0.29352322,,-0.14469522,,,
-0.0176575,,0.11713888,,,
-0.021797298,,0.016620807,,,
-0.21848798,,-0.21191598,,,
-0.19952956,,0.11977787,,,
-0.21213539,,-0.186798,,,
-0.14497052,,0.1487342,,,
0.2951602,,0.28478667,,,
-0.2782117,,0.1029997,,,
-0.14610244,,0.13179785,,,
-0.18540932,,-0.014707339,,,
-0.2718277,,-0.058848508,,,
-0.22428386,,-0.19873565,,,
0.03158734,,-0.19260387,,,
-0.27464017,,-0.1755919,,,
-0.12605985,,-0.23393698,,,
0.1499299,,-0.2053146,,,
0.07747212,,-0.030947063,,,
-0.24428728,,-0.18648578,,,
0.060500357,,-0.08127136,,,
-0.034067705,,0.11176929,,,
-0.22962025,,-0.18741651,,,
-0.255034,,0.16509555,,,
-0.18875922,,0.23096089,,,
-0.17452253,,0.20006314,,,
-0.20084509,,-0.18467698,,,
-0.033138104,,0.038709067,,,
0.056912854,,-0.22763361,,,
0.0032313524,,-0.122475475,,,
0.13744888,,-0.18986438,,,
0.18572628,,-0.12027937,,,
0.18175057,,0.20338127,,,
0.09914387,,-0.11782745,,,
0.18205151,,-0.06550051,,,
0.06257676,,0.007433029,,,
0.30748698,,0.019290628,,,
0.11038274,,0.025052177,,,
-0.21215594,,-0.09451095,,,
0.26643026,,-0.057321135,,,
0.047880147,,-0.06757237,,,
0.19010527,,0.2262947,,,
0.060185287,,-0.1203767,,,
-0.30276167,,0.12401781,,,
0.18437257,,0.21366586,,,
0.1333625,,0.054688852,,,
0.24236973,,-0.19437733,,,
-0.25171864,,-0.23804238,,,
-0.093607284,,-0.078203976,,,
0.11220183,,0.0690122,,,
0.2539211,,-0.040321376,,,
0.15298195,,0.17247067,,,
0.35023937,,0.10067965,,,
0.0707599,,0.20570539,,,
0.21757281,,-0.20592906,,,
0.07509762,,0.10331101,,,
0.0676668,,-0.10342485,,,
0.029967096,,-0.15732302,,,
0.09989504,,0.03337699,,,
-0.018227462,,-0.1907552,,,
0.008169991,,0.09828217,,,
0.034961697,,-0.012315718,,,
0.08188997,,-0.21792333,,,
0.2809033,,-0.19861764,,,
-0.0155757945,,0.19512036,,,
0.02079056,,0.068912566,,,
0.340033,,-0.12464184,,,
0.005764115,,0.055368338,,,
-0.021164402,,-0.09467964,,,
-0.20214424,,0.2207611,,,
-0.09348831,,-0.2281908,,,
-0.036332477,,-0.1837487,,,
0.2367424,,-0.21381421,,,
-0.21925788,,-0.21320277,,,
0.045051258,,0.15070584,,,
0.21787903,,-0.20243816,,,
-0.14830855,,-0.09864322,,,
0.035803374,,0.12734215,,,
-0.13016242,,-0.026843915,,,
-0.26237896,,-0.031266864,,,
-0.27372074,,-0.02234532,,,
0.054294817,,-0.06395876,,,
0.23574765,,0.17809893,,,
-0.21066846,,-0.1250728,,,
0.3077144,,0.028363904,,,
0.09877666,,0.19385302,,,
0.08547737,,-0.011836028,,,
0.07353556,,0.16905114,,,
-0.20438968,,-0.048533455,,,
0.18970264,,-0.14225435,,,
0.101975285,,-0.20871371,,,
-0.028403394,,0.10613938,,,
0.1361533,,-0.080060795,,,
0.22121173,,-0.07454512,,,
0.078778975,,-0.2305523,,,
0.15405579,,-0.01652228,,,
-0.22591788,,-0.11411648,,,
0.3189977,,0.09741476,,,
-0.065257095,,0.29979095,,,
-0.021338515,,0.18708515,,,
0.1644011,,-0.14196482,,,
-0.046346206,,0.07835666,,,
-0.22724184,,-0.15502657,,,
0.06943187,,0.19894929,,,
0.07955085,,0.08966699,,,
-0.17287697,,0.08179634,,,
0.011614026,,-0.022837741,,,
-0.23759913,,-0.22453849,,,
-0.22120562,,0.029836396,,,
-0.12810855,,0.21298172,,,
0.27231762,,0.0338384,,,
0.21643054,,-0.15964398,,,
0.090006135,,-0.2313503,,,
0.17578413,,0.18045422,,,
0.2074223,,0.23775071,,,
-0.18404232,,0.17407024,,,
-0.19489954,,-0.06978395,,,
0.41220477,,-0.102837,,,
-0.021159936,,0.16932529,,,
-0.15301399,,0.18595836,,,
-0.1153343,,-0.21694994,,,
-0.3003267,,0.2796419,,,
-0.06359992,,-0.064553805,,,
0.095582664,,-0.118658744,,,
-0.18027966,,-0.2053198,,,
0.47278985,,-0.07093219,,,
-0.21533325,,-0.16006464,,,
0.010415354,,-0.15483531,,,
-0.07010551,,-0.1214157,,,
0.16269596,,0.0729145,,,
-0.30343142,,0.0008356826,,,
0.017765645,,-0.09289106,,,
0.0877362,,-0.22368798,,,
0.2699292,,-0.22903451,,,
0.030228626,,-0.15431835,,,
-0.35585868,,0.058837418,,,
-0.15733089,,0.045603756,,,
0.30057138,,-0.050420314,,,
-0.29036063,,0.14993696,,,
-0.30621395,,-0.21037164,,,
-0.0477853,,-0.091327235,,,
0.18159309,,-0.21063662,,,
0.29225206,,-0.09797478,,,
-0.15178505,,0.12826592,,,
-0.2952276,,-0.15601538,,,
-0.24424191,,0.16492018,,,
0.15325266,,-0.06395614,,,
0.21501024,,-0.054397613,,,
0.25846377,,0.14042105,,,
0.1913983,,-0.0785842,,,
-0.00995072,,0.092531666,,,
-0.27321565,,-0.14209324,,,
-0.21429312,,-0.23679233,,,
-0.03631034,,-0.1204031,,,
0.053715106,,0.04627247,,,
-0.13721927,,0.13126214,,,
-0.016339123,,-0.22446959,,,
0.15446141,,0.23156908,,,
0.11195402,,0.06307159,,,
0.24179904,,0.030615022,,,
-0.15953429,,0.16312666,,,
0.07914109,,0.19053628,,,
0.078486875,,0.18587913,,,
0.10226515,,-0.11855122,,,
0.040122807,,-0.11319534,,,
-0.08148094,,-0.2291662,,,
0.236857,,0.17455606,,,
0.27683294,,-0.101345964,,,
0.063899696,,-0.22792749,,,
0.048973378,,0.059802532,,,
-0.21591802,,0.19408233,,,
-0.08318315,,0.21915641,,,
0.22013019,,0.028295651,,,
0.1055569,,-0.1243003,,,
0.05033726,,0.118759066,,,
-0.22504564,,0.07728741,,,
-0.30390412,,-0.09402484,,,
-0.2485429,,0.11181262,,,
0.0379433,,-0.024234118,,,
0.08541049,,0.12586975,,,
0.29415804,,0.02112442,,,
0.33331507,,-0.075228676,,,
0.12019382,,0.06975789,,,
0.12735742,,0.14883423,,,
0.020577857,,0.031505555,,,
-0.1309003,,-0.2238291,,,
-0.21251245,,-0.029295204,,,
0.09910066,,0.2142145,,,
-0.12888551,,-0.21791434,,,
-0.03962425,,0.11346578,,,
0.077534,,-0.24105376,,,
0.16734985,,0.12884516,,,
0.1814244,,-0.16734932,,,
0.027120067,,-0.20940606,,,
-0.13933113,,-0.11965549,,,
-0.20431286,,0.14519624,,,
-0.29929465,,-0.17645955,,,
-0.086873285,,0.025221035,,,
-0.017776312,,0.17461173,,,
-0.08714046,,-0.055735387,,,
-0.08037682,,0.17828745,,,
0.2393981,,-0.016531767,,,
-0.1465361,,-0.071120635,,,
0.007821694,,0.18200457,,,
0.19036947,,-0.1620573,,,
-0.10948345,,-0.031736843,,,
-0.15766251,,-0.09980436,,,
0.017653558,,-0.0830027,,,
-0.119146615,,-0.03903712,,,
0.15789393,,0.20936628,,,
-0.25974292,,0.061337363,,,
-0.30019853,,0.15793917,,,
-0.1432183,,-0.008928378,,,
0.03257199,,-0.24471618,,,
-0.0050741453,,0.17636345,,,
-0.20656492,,0.0037239634,,,
0.18834944,,0.053857453,,,
0.24701186,,0.12159392,,,
0.14708672,,0.17939985,,,
0.00646427,,-0.22213912,,,
0.26962453,,0.10401246,,,
0.10571255,,-0.020694133,,,
0.010807425,,0.0023256417,,,
0.21953268,,0.20332876,,,
0.28939024,,-0.21887974,,,
0.04115939,,-0.24236001,,,
-0.14927614,,0.15527976,,,
-0.11207171,,-0.122824155,,,
-0.21927632,,-0.14037637,,,
-0.2978787,,-0.12278024,,,
0.10460118,,-0.06636378,,,
0.28034255,,0.20409785,,,
-0.0425236,,0.16474463,,,
-0.19846882,,0.16633035,,,
-0.23662731,,-0.1773641,,,
0.06686182,,0.15611519,,,
0.12572794,,-0.029269958,,,
-0.21020892,,-0.12232066,,,
0.21797183,,-0.17001589,,,
0.18762001,,-0.2334719,,,
-0.31803963,,-0.1934855,,,
-0.30079058,,-0.07413681,,,
0.1780849,,-0.22021163,,,
-0.037604764,,-0.18163615,,,
0.35780883,,-0.12855184,,,
-0.23781236,,-0.006846182,,,
-0.325576,,-0.0523455,,,
-0.085609555,,0.15101112,,,
0.05753214,,-0.03224032,,,
0.19580986,,-0.050273728,,,
0.33078042,,-0.17498128,,,
0.13740158,,-0.15502691,,,
0.25941104,,-0.20517704,,,
-0.3689165,,0.039403368,,,
0.18046004,,0.018809836,,,
-0.121583246,,0.17934462,,,
0.05711227,,-0.046330996,,,
0.36800057,,-0.027469283,,,
0.19472058,,0.20653826,,,
0.18609937,,-0.12241393,,,
-0.2989339,,-0.14922395,,,
-0.24731773,,-0.027388168,,,
-0.23540291,,0.22363386,,,
0.017678265,,-0.14534162,,,
0.19075383,,0.14870918,,,
0.28913495,,0.16022536,,,
0.13437758,,-0.030003859,,,
0.120522834,,0.15793829,,,
0.16241397,,-0.20516644,,,
-0.24328956,,-0.11277369,,,
-0.1931732,,-0.23139203,,,
0.25370985,,-0.23967421,,,
0.16077994,,0.17239942,,,
0.08469938,,-0.00041644333,,,
0.22334172,,0.18409918,,,
-0.10009093,,-0.2390354,,,
0.21796833,,-0.15459186,,,
0.21982281,,0.23729677,,,
0.21372326,,-0.21827331,,,
0.059920434,,0.18553069,,,
-0.3134862,,0.1931948,,,
0.056070957,,0.20249204,,,
0.06304766,,0.19782892,,,
-0.09206458,,-0.08123548,,,
-0.27523962,,-0.018757712,,,
0.061575856,,0.23833105,,,
-0.070492774,,-0.11763608,,,
-0.06726599,,0.17190957,,,
-0.1809701,,-0.21976338,,,
-0.2377223,,-0.054951027,,,
-0.27148142,,-0.032090604,,,
0.19739264,,-0.1794899,,,
0.12782872,,0.033898707,,,
0.17000318,,-0.15526192,,,
-0.13940892,,-0.2432598,,,
0.27267864,,0.026174635,,,
0.075927004,,0.033089567,,,
-0.20988645,,0.0092273075,,,
-0.2699409,,-0.24306272,,,
0.23828806,,0.10753412,,,
0.27237347,,-0.052858394,,,
0.09118416,,0.14455363,,,
0.14573896,,-0.11076533,,,
-0.12853704,,-0.01654592,,,
0.096656576,,0.11643833,,,
-0.10480996,,-0.18002588,,,
-0.15488547,,-0.081387155,,,
-0.09409232,,-0.22951172,,,
0.07823273,,-0.0658799,,,
-0.059025314,,0.21823882,,,
0.14482588,,-0.13988326,,,
-0.17827515,,-0.0752824,,,
0.024480656,,-0.13826804,,,
0.056076273,,0.17887248,,,
0.3028998,,0.012577431,,,
-0.27212417,,-0.003343503,,,
0.22613692,,-0.17344128,,,
0.28822243,,-0.1446752,,,
-0.24545799,,0.2315342,,,
-0.2033572,,-0.032623507,,,
-0.12866268,,-0.23842664,,,
0.24344884,,-0.16358699,,,
0.08626776,,-0.11371539,,,
0.06553426,,0.17039818,,,
0.049557567,,-0.03629148,,,
0.049632177,,0.16142316,,,
-0.10879955,,0.110507205,,,
-0.075705215,,0.071467325,,,
-0.0020191523,,-0.16764933,,,
-0.31234998,,0.10397481,,,
0.05523849,,0.24223337,,,
-0.05389795,,0.02534083,,,
0.31932446,,-0.21720605,,,
-0.003783179,,-0.037399966,,,
0.29726374,,0.23019096,,,
-0.097680375,,-0.053496398,,,
-0.26722577,,-0.105468534,,,
0.11427639,,-0.2048961,,,
0.19063614,,0.1755006,,,
0.02270045,,-0.092877306,,,
0.28073472,,-0.16713634,,,
0.28011107,,-0.04772402,,,
-0.2703174,,0.22645834,,,
-0.14193687,,-0.08419641,,,
-0.26234257,,0.01372842,,,
0.21205027,,-0.14813657,,,
0.24698381,,0.18275744,,,
-0.30514407,,0.18965909,,,
-0.19848642,,0.1376389,,,
0.12763111,,0.18516354,,,
-0.2898825,,-0.05199271,,,
0.1352795,,0.17615743,,,
-0.09166879,,-0.22812483,,,
0.19949384,,0.06856469,,,
0.2903758,,0.12005078,,,
-0.2657441,,-0.010378968,,,
0.16720654,,-0.22271033,,,
0.1749515,,0.20854068,,,
0.040120233,,-0.07154189,,,
-0.024656152,,-0.080787204,,,
0.15880337,,-0.093400694,,,
0.047089677,,0.10427276,,,
0.1446696,,0.046192423,,,
0.03631541,,-0.04374293,,,
-0.25281176,,-0.14146245,,,
0.27261668,,-0.20535293,,,
0.18064229,,-0.12003291,,,
-0.1920958,,-0.066071786,,,
-0.07263,,-0.16610914,,,
-0.19272055,,0.027540985,,,
0.27887678,,-0.19606353,,,
-0.31559944,,0.21021636,,,
0.22589083,,0.14757113,,,
0.199618,,0.2270213,,,
0.03530043,,-0.002574692,,,
0.085967116,,-0.11277429,,,
-0.07042173,,-0.21468039,,,
0.0048726704,,0.0075190715,,,
0.10950269,,0.14412895,,,
0.014827705,,0.08027931,,,
0.17721471,,-0.1924917,,,
0.04743829,,-0.2453248,,,
0.10452002,,0.16503957,,,
-0.25532308,,-0.09129685,,,
-0.24678719,,-0.17164174,,,
0.091415316,,0.061688557,,,
-0.25551674,,-0.1583577,,,
0.30266207,,-0.16997938,,,
-0.14517385,,-0.22840366,,,
-0.15432376,,0.054676555,,,
-0.19984606,,-0.088548556,,,
0.1475746,,0.11442598,,,
-0.13265859,,0.121427305,,,
-0.088224865,,0.013064492,,,
0.18994102,,-0.19285803,,,
-0.24136324,,-0.16972686,,,
0.307423,,-0.0020567225,,,
-0.0014734925,,0.036477417,,,
0.262881,,0.050092004,,,
-0.007840367,,0.17417796,,,
-0.075859554,,0.21468091,,,
0.2712515,,-0.06473633,,,
-0.04485129,,0.04067805,,,
0.076853044,,-0.11002009,,,
0.22380939,,-0.15166406,,,
-0.10822309,,-0.18081336,,,
0.15090229,,-0.13487992,,,
-0.06324406,,0.16283287,,,
-0.0672255,,0.063217014,,,
-0.18207137,,0.16655003,,,
-0.22245446,,-0.1968361,,,
0.22390622,,-0.017355768,,,
-0.009307023,,-0.047473274,,,
-0.09802969,,-0.18251699,,,
-0.28417265,,0.11890494,,,
-0.06786263,,-0.18424927,,,
-0.15167835,,-0.1235809,,,
-0.18618749,,0.07333731,,,
-0.18110253,,0.008795968,,,
-0.24495687,,0.04813606,,,
-0.15071829,,0.1630514,,,
0.24555789,,-0.044287007,,,
-0.21293388,,0.20485641,,,
-0.18525003,,-0.06791613,,,
0.002274135,,0.08576401,,,
-0.06834857,,-0.13696149,,,
0.07333918,,-0.029894074,,,
0.23709089,,0.013805299,,,
0.3055758,,-0.10440016,,,
-0.03846068,,-0.1951732,,,
0.06494362,,0.03139724,,,
-0.07212782,,-0.20502576,,,
-0.2919903,,-0.1850732,,,
0.024159448,,0.05082555,,,
0.2601837,,0.13931227,,,
-0.23715523,,0.22798066,,,
0.34048212,,0.16270347,,,
0.1327507,,-0.048124067,,,
-0.22984244,,-0.055186972,,,
-0.06296156,,0.11000233,,,
0.05921413,,-0.22401729,,,
0.2172408,,-0.009212779,,,
-0.20992024,,0.21615416,,,
0.09005601,,-0.172586,,,
-0.25811827,,-0.08885275,,,
0.053235013,,-0.12980168,,,
0.07452538,,-0.006915015,,,
0.03139621,,-0.12351646,,,
0.24901131,,0.10242022,,,
-0.13746192,,0.18104509,,,
0.24199054,,0.15075979,,,
0.1351282,,-0.18856789,,,
0.21810283,,0.013710769,,,
0.08839944,,0.2423219,,,
-0.121884346,,-0.09297847,,,
0.2525265,,0.120816134,,,
-0.1265562,,0.21464323,,,
0.2645353,,-0.0109347915,,,
-0.18866767,,0.08456518,,,
-0.04687861,,-0.23174222,,,
-0.079629265,,-0.07005763,,,
-0.047185987,,-0.008636032,,,
-0.20034799,,-0.23682389,,,
0.033967074,,0.14869349,,,
-0.29286146,,0.123356365,,,
0.25146344,,-0.107789315,,,
0.21450262,,0.039300345,,,
-0.13896501,,-0.21566984,,,
-0.13692424,,-0.07898898,,,
-0.1315948,,-0.13741241,,,
-0.33173755,,-0.21491788,,,
0.08096138,,-0.22585925,,,
0.2146636,,-0.20473814,,,
-0.044837125,,0.09464209,,,
0.25919384,,-0.13256906,,,
0.053021528,,0.17686582,,,
0.09017311,,-0.18639393,,,
0.0348668,,-0.021067472,,,
0.23531553,,0.16911905,,,
0.09813438,,-0.02779345,,,
-0.12960425,,0.006954197,,,
-0.10006061,,-0.0726546,,,
0.20433953,,-0.10619625,,,
-0.10322623,,-0.16616048,,,
0.29030824,,-0.22279486,,,
-0.058638968,,-0.08217895,,,
-0.10222716,,-0.108737126,,,
0.248456,,0.06304011,,,
-0.07222984,,-0.17313652,,,
-0.23167188,,-0.026537698,,,
-0.17316256,,0.15203282,,,
-0.01400771,,0.1733818,,,
-0.15069793,,0.05871799,,,
-0.22239712,,-0.11738353,,,
-0.015297456,,0.23558578,,,
-0.22007985,,-0.082016125,,,
0.22698642,,-0.20544636,,,
0.19336002,,0.23510507,,,
0.101577304,,-0.08131401,,,
-0.27989802,,0.069169775,,,
0.113825776,,0.019646654,,,
-0.07638764,,0.14378117,,,
0.21740063,,-0.0028203216,,,
-0.20600837,,-0.027610147,,,
0.049737506,,-0.032278035,,,
0.1354366,,0.16635606,,,
-0.18414393,,-0.07437698,,,
0.08839996,,-0.18149823,,,
0.14096537,,0.19845176,,,
0.044304196,,0.23703647,,,
0.041978717,,-0.102945246,,,
-0.18648905,,0.077403225,,,
0.27411202,,0.12607917,,,
0.038628694,,0.06487434,,,
-0.26563895,,0.11191511,,,
0.07272807,,0.02549435,,,
-0.13317809,,-0.13589919,,,
-0.03690474,,-0.24156608,,,
-0.13068834,,0.17547734,,,
0.26524204,,-0.16104233,,,
0.09870711,,-0.118038006,,,
-0.26637185,,-0.1955558,,,
-0.058540013,,0.03473709,,,
0.20483142,,0.22916783,,,
-0.25574532,,0.1697732,,,
0.30928048,,0.11647441,,,
-0.14542885,,-0.0048580994,,,
-0.13877687,,-0.0109639745,,,
0.15544108,,-0.20052691,,,
-0.08462944,,-0.19708191,,,
-0.23720434,,-0.0301456,,,
0.018507486,,0.17887576,,,
0.19943409,,-0.13761412,,,
0.2681945,,-0.21650682,,,
0.24421963,,-0.13584718,,,
0.08943055,,-0.07754716,,,
-0.065518506,,0.069542594,,,
-0.18175155,,0.043953404,,,
0.0152115,,-0.22053406,,,
-0.014947216,,0.23131822,,,
-0.14188199,,0.068132415,,,
0.05127316,,-0.07268483,,,
-0.06081381,,-0.17560238,,,
-0.013831875,,0.10162432,,,
-0.072560616,,-0.1393229,,,
-0.07290967,,-0.07724892,,,
0.027858656,,0.0043066256,,,
-0.26073128,,-0.001484977,,,
0.19796261,,0.07061769,,,
0.23017938,,-0.062055916,,,
0.27250373,,-0.0034105903,,,
0.33687672,,-0.24573669,,,
0.2599761,,-0.16985825,,,
-0.1362231,,-0.24848041,,,
0.22567362,,0.11865245,,,
-0.11987724,,-0.10882809,,,
0.0063385037,,-0.1066747,,,
-0.2611552,,-0.060342018,,,
0.1977778,,-0.21479589,,,
0.21376863,,0.07627282,,,
-0.16796373,,0.0022617579,,,
-0.09467609,,0.036174685,,,
-0.25590822,,-0.21621802,,,
-0.05169553,,-0.16415028,,,
0.09724089,,0.22579136,,,
0.14490867,,0.12727056,,,
0.25745627,,-0.055657957,,,
0.2793714,,0.17806853,,,
-0.0029199887,,-0.03561745,,,
0.3046052,,-0.18701226,,,
-0.0790464,,-0.14526312,,,
0.23692882,,0.16299632,,,
0.2805236,,0.0363806,,,
0.16571496,,0.021794047,,,
-0.30878857,,-0.043409385,,,
-0.27392244,,-0.24116904,,,
-0.17830254,,0.21725763,,,
0.22918007,,-0.14332929,,,
-0.15223421,,-0.07480933,,,
-0.271667,,0.017952397,,,
-0.28340688,,-0.047165252,,,
-0.15084688,,-0.21255481,,,
-0.29817867,,0.19817728,,,
0.0491579,,0.18217327,,,
-0.039391484,,-0.14126872,,,
0.19790523,,-0.13307309,,,
-0.3171592,,-0.17860255,,,
-0.2711324,,0.034468006,,,
0.16685447,,0.104969606,,,
0.20682004,,-0.14267832,,,
-0.010074816,,-0.095089816,,,
-0.24245894,,-0.12880133,,,
0.0548751,,-0.14494784,,,
-0.14044265,,-0.04240475,,,
0.027680798,,-0.15758438,,,
-0.19179665,,0.12990525,,,
0.1444215,,-0.11653225,,,
0.09232469,,-0.02506499,,,
-0.15247275,,-0.004185,,,
-0.2306435,,-0.06115851,,,
0.07573927,,-0.14778276,,,
0.25088653,,0.21699102,,,
0.067998536,,-0.044139843,,,
-0.22762951,,-0.14371854,,,
-0.13932024,,-0.20661004,,,
0.11156097,,-0.0060532326,,,
0.0018872165,,0.22016166,,,
-0.3035194,,-0.09839632,,,
-0.021175481,,-0.049668156,,,
0.043922834,,-0.24881184,,,
-0.23684719,,0.0182392,,,
0.030017797,,-0.019864868,,,
-0.2536021,,0.02112507,,,
0.27688313,,0.22984831,,,
-0.060088713,,-0.12822764,,,
0.2594714,,0.052018322,,,
0.16448012,,-0.13344829,,,
-0.16405976,,0.080251895,,,
0.02617309,,-0.2405185,,,
-0.15582572,,-0.1830751,,,
0.2805264,,0.24347864,,,
0.14717394,,0.014545678,,,
0.2468623,,0.010833155,,,
0.29034355,,-0.08555429,,,
-0.22458912,,0.06640208,,,
0.23738721,,-0.1424514,,,
0.1731872,,-0.04987962,,,
0.26268467,,-0.18801539,,,
0.099080525,,0.21600756,,,
0.17451537,,-0.21811937,,,
0.065363176,,-0.074751325,,,
-0.058581717,,-0.023408048,,,
-0.27322108,,-0.13325287,,,
-0.1754851,,-0.09657772,,,
0.29184425,,-0.121591516,,,
0.14725783,,0.084014714,,,
-0.20106876,,0.1698601,,,
0.059128482,,-0.06643615,,,
-0.21755172,,0.058859937,,,
0.021798812,,0.100723356,,,
0.03558713,,-0.118156314,,,
0.1917665,,-0.19655597,,,
0.29623187,,0.053785075,,,
-0.11677088,,0.23875652,,,
-0.30442402,,0.17809662,,,
-0.15160152,,-0.16333535,,,
0.042395044,,-0.23095128,,,
-0.12762144,,0.23305888,,,
-0.25906023,,-0.1354894,,,
-0.29063836,,0.039419815,,,
-0.12801065,,-0.028403658,,,
0.15193067,,-0.16453592,,,
0.026905103,,-0.12188186,,,
-0.045498826,,-0.13173787,,,
-0.111624725,,-0.036746662,,,
-0.06453843,,0.22868046,,,
0.2887797,,0.15933606,,,
0.23993605,,0.23163857,,,
0.081671424,,0.22871801,,,
-0.04135395,,0.040170647,,,
-0.2362252,,0.067199245,,,
0.1594541,,0.1292589,,,
-0.17152101,,0.2460415,,,
-0.24264166,,-0.12331715,,,
-0.18624108,,-0.11410627,,,
-0.24434522,,0.066549934,,,
0.20997679,,0.12348918,,,
-0.2298292,,0.10924119,,,
-0.113245614,,-0.1537579,,,
-0.21843596,,-0.16597557,,,
0.20526162,,0.038546972,,,
0.25926924,,-0.088934325,,,
-0.2700271,,0.07161729,,,
0.033635173,,-0.19158645,,,
0.16022234,,-0.17654867,,,
-0.3076759,,-0.08673115,,,
0.18324442,,-0.059827693,,,
-0.25064683,,-0.16753832,,,
-0.037848447,,-0.15680984,,,
-0.18293175,,-0.20716734,,,
0.22683284,,-0.14735478,,,
0.29564208,,0.15885295,,,
0.20392153,,-0.21225683,,,
-0.20900291,,-0.06778109,,,
-0.24196266,,0.19729988,,,
-0.106156796,,0.12060845,,,
0.060458966,,0.060929697,,,
-0.09649315,,0.21250069,,,
0.22098726,,0.12609816,,,
-0.12995175,,-0.044071656,,,
-0.1611779,,-0.007978286,,,
-0.064913444,,0.18943794,,,
0.003637433,,-0.23338123,,,
-0.11812665,,-0.12541132,,,
0.25128525,,-0.20446508,,,
-0.20560873,,0.053304065,,,
0.15402712,,-0.19057941,,,
0.029290447,,-0.15184024,,,
0.06820953,,-0.142032,,,
0.018242668,,0.176868,,,
-0.21096483,,0.18953778,,,
0.036572114,,-0.10885794,,,
0.030092914,,-0.19055782,,,
-0.17497502,,0.04100804,,,
0.047713526,,0.13893263,,,
-0.110942416,,-0.077859834,,,
-0.10417243,,-0.14805464,,,
-0.20826428,,0.008808315,,,
-0.30180982,,0.116483904,,,
0.2626041,,0.06865325,,,
-0.08661861,,-0.07920855,,,
-0.24938245,,0.2242574,,,
-0.15635386,,0.030719597,,,
0.012199057,,-0.24373338,,,
-0.02760105,,0.014416516,,,
0.2176995,,0.08399307,,,
0.17694063,,-0.14449388,,,
0.005918942,,0.07063524,,,
-0.10259657,,0.11473825,,,
0.27047297,,-0.06081912,,,
,,0.04525072,,,
,,0.1297489,,,
,,0.07680198,,,
,,0.014823977,,,
,,0.22692873,,,
,,-0.094948515,,,
,,0.21014558,,,
,,0.07236696,,,
,,-0.16253349,,,
,,-0.23508976,,,
,,-0.085204385,,,
,,-0.087149866,,,
,,0.0026599008,,,
,,0.03599669,,,
,,-0.0036737116,,,
,,0.04093511,,,
,,-0.087862425,,,
,,0.2062649,,,
,,-0.027104227,,,
,,0.15302207,,,
,,0.077345386,,,
,,-0.14930706,,,
,,0.19211398,,,
,,0.06493089,,,
,,0.22213183,,,
,,-0.18714483,,,
,,-0.242537,,,
,,0.14626008,,,
,,-0.22038329,,,
,,-0.14178674,,,
,,0.0434617,,,
,,0.1912503,,,
,,-0.052176774,,,
,,-0.032305792,,,
,,-0.09316268,,,
,,0.05029526,,,
,,-0.14885172,,,
,,0.05916258,,,
,,0.08322594,,,
,,0.118799075,,,
,,-0.08089885,,,
,,0.030057171,,,
,,0.06573018,,,
,,0.16991353,,,
,,-0.09288776,,,
,,-0.19128636,,,
,,-0.040340267,,,
,,-0.17491166,,,
,,-0.15068424,,,
,,0.023171574,,,
,,-0.21742767,,,
,,0.21764301,,,
,,-0.017648607,,,
,,-0.21622925,,,
,,0.16926906,,,
,,-0.10342414,,,
,,-0.18584,,,
,,-0.11309717,,,
,,-0.04321018,,,
,,-0.09394807,,,
,,0.0045107617,,,
,,0.14144562,,,
,,0.18838501,,,
,,-0.0510372,,,
,,-0.143129,,,
,,-0.18028685,,,
,,0.13142055,,,
,,-0.22478297,,,
,,0.058803864,,,
,,0.068776555,,,
,,0.0005431528,,,
,,-0.098513395,,,
,,-0.040942222,,,
,,-0.13994274,,,
,,0.07350003,,,
,,-0.1544393,,,
,,0.21844374,,,
,,-0.12818319,,,
,,-0.24409485,,,
,,0.16241089,,,
,,-0.03595966,,,
,,-0.054631397,,,
,,0.1772004,,,
,,-0.18260565,,,
,,-0.03462602,,,
,,-0.090036914,,,
,,-0.19285917,,,
,,0.01922962,,,
,,-0.13997956,,,
,,-0.116629615,,,
,,0.06922911,,,
,,0.05782125,,,
,,0.047632687,,,
,,-0.119965054,,,
,,0.042215057,,,
,,0.23417385,,,
,,-0.23129994,,,
,,0.2107918,,,
,,0.20246865,,,
,,-0.17482314,,,
,,-0.016047543,,,
,,-0.19929981,,,
,,0.18332858,,,
,,0.073203884,,,
,,-0.19161569,,,
,,-0.0036089735,,,
,,-0.09778053,,,
,,0.030839233,,,
,,0.024938244,,,
,,0.056374677,,,
,,0.046630766,,,
,,-0.22015156,,,
,,0.046801277,,,
,,0.031346153,,,
,,-0.01916176,,,
,,-0.04219965,,,
,,-0.113507845,,,
,,-0.16425052,,,
,,-0.22889416,,,
,,-0.22567715,,,
,,0.04976893,,,
,,0.0888382,,,
,,0.11586974,,,
,,0.23941372,,,
,,0.066694446,,,
,,-0.12046023,,,
,,0.199715,,,
,,0.07451,,,
,,0.019113433,,,
,,-0.23724562,,,
,,-0.064727426,,,
,,0.07996834,,,
,,0.03989254,,,
,,-0.098031156,,,
,,-0.15431151,,,
,,0.12170447,,,
,,0.20562485,,,
,,-0.1707446,,,
,,0.06495194,,,
,,-0.20946099,,,
,,0.026164781,,,
,,0.19477262,,,
,,-0.19562003,,,
,,0.14920232,,,
,,-0.0416537,,,
,,0.21476164,,,
,,-0.2019971,,,
,,-0.17939083,,,
,,-0.09906879,,,
,,-0.15882798,,,
,,0.056663226,,,
,,0.042072877,,,
,,-0.021707509,,,
,,0.18801177,,,
,,0.17776209,,,
,,-0.17803977,,,
,,-0.11492615,,,
,,-0.12862189,,,
,,-0.14618285,,,
,,0.14476596,,,
,,-0.02693826,,,
,,0.050105713,,,
,,-0.12106478,,,
,,0.083400145,,,
,,0.17928134,,,
,,-0.048283864,,,
,,-0.086995535,,,
,,-0.06622293,,,
,,-0.13411322,,,
,,-0.19831051,,,
,,-0.21663067,,,
,,0.016630616,,,
,,-0.22966275,,,
,,-0.21397153,,,
,,0.054262325,,,
,,-0.008944851,,,
,,0.2449284,,,
,,0.07971954,,,
,,0.075772285,,,
,,-0.041341707,,,
,,0.015214555,,,
,,0.10277843,,,
,,0.057758152,,,
,,-0.22453201,,,
,,-0.18468931,,,
,,-0.060698435,,,
,,-0.22074969,,,
,,-0.01609305,,,
,,0.093687385,,,
,,0.0018217742,,,
,,-0.0070633953,,,
,,0.1733949,,,
,,-0.21104912,,,
,,0.1157455,,,
,,0.23717411,,,
,,0.082353905,,,
,,0.1492456,,,
,,0.06483478,,,
,,0.0369673,,,
,,-0.14409478,,,
,,0.17434703,,,
,,-0.13743374,,,
,,0.059896823,,,
,,-0.053632937,,,
,,-0.02192187,,,
,,-0.15909132,,,
,,-0.049663946,,,
,,0.08182886,,,
,,-0.014990088,,,
,,0.14064232,,,
,,-0.12013306,,,
,,0.11287092,,,
,,0.04573838,,,
,,-0.09495069,,,
,,-0.2508926,,,
,,0.07357674,,,
,,-0.09716496,,,
,,-0.23137686,,,
,,-0.19796367,,,
,,0.01513324,,,
,,0.04442462,,,
,,0.26262212,,,
,,0.102394626,,,
,,0.22126518,,,
,,-0.16061884,,,
,,-0.02785612,,,
,,-0.21799588,,,
,,-0.022218997,,,
,,0.16718201,,,
,,-0.03350499,,,
,,0.08519569,,,
,,0.013806948,,,
,,-0.1792221,,,
,,0.25810122,,,
,,0.15669397,,,
,,-0.13538608,,,
,,-0.20444451,,,
,,-0.09452335,,,
,,-0.20862488,,,
,,-0.007994657,,,
,,0.074909195,,,
,,0.019284816,,,
,,-0.1431619,,,
,,-0.23912077,,,
,,-0.03518935,,,
,,-0.18558851,,,
,,-0.22861756,,,
,,0.1159607,,,
,,0.00066740124,,,
,,0.011074836,,,
,,-0.044857044,,,
,,-0.16472876,,,
,,0.113369375,,,
,,-0.010210494,,,
,,0.06725275,,,
,,0.15132886,,,
,,-0.17185794,,,
,,-0.23662607,,,
,,0.19417647,,,
,,0.14856978,,,
,,-0.019120011,,,
,,0.23289897,,,
,,-0.03573523,,,
,,0.06830986,,,
,,0.046384618,,,
,,-0.18994129,,,
,,-0.22995412,,,
,,-0.012764966,,,
,,0.009060526,,,
,,0.18993182,,,
,,-0.17734301,,,
,,0.0023481708,,,
,,-0.1784124,,,
,,0.23397583,,,
,,0.11321927,,,
,,-0.019681288,,,
,,0.11522178,,,
,,-0.19707128,,,
,,0.118257545,,,
,,0.20389207,,,
,,0.08977411,,,
,,0.034224086,,,
,,-0.10791024,,,
,,0.21909991,,,
,,0.20707597,,,
,,0.08040533,,,
,,0.14263828,,,
,,0.10831046,,,
,,-0.13551205,,,
,,0.22396326,,,
,,0.028586335,,,
,,0.09472282,,,
,,0.038509723,,,
,,0.124716066,,,
,,-0.14434315,,,
,,-0.1961434,,,
,,0.09785457,,,
,,0.091774166,,,
,,-0.11109494,,,
,,-0.016821273,,,
,,0.12657817,,,
,,-0.15208203,,,
,,0.052982222,,,
,,-0.22911824,,,
,,0.17856282,,,
,,-0.16185413,,,
,,0.06819825,,,
,,0.019645913,,,
,,0.19403352,,,
,,0.08791193,,,
,,0.20310383,,,
,,0.020442488,,,
,,0.22213522,,,
,,-0.13975437,,,
,,0.08988744,,,
,,-0.23617488,,,
,,0.060852934,,,
,,-0.14632598,,,
,,-0.07930523,,,
,,-0.17760324,,,
,,-0.2360912,,,
,,-0.24476199,,,
,,-0.07011456,,,
,,-0.061454833,,,
,,0.23006524,,,
,,0.05586499,,,
,,-0.02553828,,,
,,-0.10400041,,,
,,-0.050263733,,,
,,0.12928128,,,
,,0.025034375,,,
,,0.07341083,,,
,,-0.15810043,,,
,,-0.15144336,,,
,,-0.12869881,,,
,,-0.21708347,,,
,,-0.056602478,,,
,,-0.20891017,,,
,,0.07228982,,,
,,0.22673246,,,
,,-0.1557405,,,
,,0.21207783,,,
,,-0.039034523,,,
,,-0.002346461,,,
,,-0.14399025,,,
,,0.06323804,,,
,,0.21316206,,,
,,-0.19847082,,,
,,0.05558863,,,
,,0.24463287,,,
,,0.20174396,,,
,,0.09331179,,,
,,0.1777401,,,
,,-0.1474215,,,
,,-0.0079049785,,,
,,0.075328805,,,
,,-0.21590047,,,
,,-0.078362025,,,
,,0.117591254,,,
,,-0.1243595,,,
,,-0.19493538,,,
,,0.070839636,,,
,,-0.09749565,,,
,,-0.013265262,,,
,,-0.08473427,,,
,,0.24277525,,,
,,0.21330518,,,
,,0.156893,,,
,,-0.1448388,,,
,,-0.15050322,,,
,,0.20724803,,,
,,-0.0025467156,,,
,,0.05549543,,,
,,-0.038808588,,,
,,0.1391502,,,
,,0.09100512,,,
,,0.1392672,,,
,,0.19311075,,,
,,-0.001644996,,,
,,-0.027213773,,,
,,-0.16235626,,,
,,-0.062513724,,,
,,-0.12963153,,,
,,0.08611312,,,
,,0.18864359,,,
,,-0.09570624,,,
,,0.17057806,,,
,,-0.19964735,,,
,,0.18119653,,,
,,0.08388349,,,
,,0.19984502,,,
,,-0.027610965,,,
,,-0.22397901,,,
,,-0.18650422,,,
,,-0.001633229,,,
,,0.20738716,,,
,,0.05883441,,,
,,0.123339094,,,
,,-0.2504276,,,
,,-0.08797685,,,
,,-0.12904054,,,
,,0.17709795,,,
,,-0.1564081,,,
,,-0.09556411,,,
,,0.06998291,,,
,,-0.1488436,,,
,,0.16264084,,,
,,0.08872615,,,
,,-0.1815821,,,
,,-0.19231352,,,
,,0.018512953,,,
,,-0.14519416,,,
,,-0.17140561,,,
,,0.18040925,,,
,,-0.12702638,,,
,,-0.0855671,,,
,,0.19729352,,,
,,-0.23043652,,,
,,-0.23069066,,,
,,0.05143094,,,
,,0.21981746,,,
,,-0.01916244,,,
,,-0.10100363,,,
,,-0.16746105,,,
,,0.0054760217,,,
,,0.022579672,,,
,,-0.1329519,,,
,,-0.041781645,,,
,,-0.11575761,,,
,,0.09065517,,,
,,0.24066123,,,
,,0.0063745193,,,
,,-0.07072799,,,
,,-0.20646913,,,
,,-0.22779906,,,
,,0.123857364,,,
,,0.12827358,,,
,,0.115485966,,,
,,0.033232793,,,
,,0.14540488,,,
,,0.2033925,,,
,,0.24065201,,,
,,-0.01143522,,,
,,-0.01436162,,,
,,-0.037144203,,,
,,0.19071062,,,
,,-0.061181366,,,
,,-0.15746479,,,
,,-0.23940368,,,
,,-0.16145065,,,
,,0.07814698,,,
,,-0.07622547,,,
,,0.21572223,,,
,,-0.024646591,,,
,,-0.071891904,,,
,,0.01514763,,,
,,0.1631994,,,
,,0.131112,,,
,,-0.18886697,,,
,,0.103239514,,,
,,-0.11790142,,,
,,-0.10028877,,,
,,0.14705072,,,
,,-0.07220389,,,
,,-0.039633885,,,
,,-0.122399844,,,
,,0.015659323,,,
,,0.06764417,,,
,,-0.234149,,,
,,-0.011973214,,,
,,0.16854918,,,
,,0.09775686,,,
,,-0.15651695,,,
,,0.06778602,,,
,,-0.12550569,,,
,,0.059469745,,,
,,0.1690314,,,
,,-0.06784955,,,
,,0.116312034,,,
,,-0.13422054,,,
,,-0.23855042,,,
,,0.19394307,,,
,,-0.15135874,,,
,,-0.036286086,,,
,,0.18742843,,,
,,-0.2008848,,,
,,-0.16957815,,,
,,0.09325655,,,
,,0.11249377,,,
,,-0.23251033,,,
,,-0.16293329,,,
,,-0.059638802,,,
,,0.030195698,,,
,,-0.13764869,,,
,,-0.057468135,,,
,,-0.2074643,,,
,,-0.035106417,,,
,,0.13650335,,,
,,-0.043143317,,,
,,0.011397842,,,
,,-0.08715093,,,
,,0.058111936,,,
,,0.1205475,,,
,,0.023581032,,,
,,-0.12512705,,,
,,0.18318166,,,
,,-0.027211541,,,
,,-0.099511,,,
,,0.11739244,,,
,,0.16248147,,,
,,0.17358468,,,
,,-0.10948702,,,
,,0.18951164,,,
,,0.042301387,,,
,,0.14952406,,,
,,0.049904086,,,
,,-0.11255783,,,
,,-0.058292143,,,
,,-0.24104555,,,
,,-0.116215065,,,
,,-0.02522917,,,
,,-0.047679383,,,
,,-0.22406276,,,
,,0.21754624,,,
,,0.10710132,,,
,,-0.2460291,,,
,,0.039788585,,,
,,-0.095673986,,,
,,0.19499037,,,
,,-0.097338535,,,
,,-0.05660365,,,
,,0.020257158,,,
,,-0.07472723,,,
,,-0.13968989,,,
,,0.16199356,,,
,,-0.114341065,,,
,,-0.06834808,,,
,,-0.16103724,,,
,,0.034896567,,,
,,-0.004733967,,,
,,-0.034687575,,,
,,-0.050410833,,,
,,0.22635089,,,
,,0.13135915,,,
,,0.010267913,,,
,,0.22962508,,,
,,-0.09153509,,,
,,-0.1284869,,,
,,-0.18307318,,,
,,0.032120645,,,
,,0.23944083,,,
,,-0.018194098,,,
,,0.159707,,,
,,-0.10328486,,,
,,-0.20476486,,,
,,-0.13718224,,,
,,0.019739002,,,
,,-0.13621268,,,
,,0.20550235,,,
,,0.09867177,,,
,,0.19044872,,,
,,0.16399583,,,
,,0.10759888,,,
,,0.17252652,,,
,,0.002036418,,,
,,0.22807324,,,
,,-0.036417913,,,
,,-0.1753845,,,
,,-0.009724259,,,
,,0.163486,,,
,,-0.24007872,,,
,,0.1390414,,,
,,0.077849925,,,
,,0.016988367,,,
,,0.009732494,,,
,,-0.19385503,,,
,,-0.033075567,,,
,,0.17207265,,,
,,0.18558559,,,
,,-0.036075756,,,
,,-0.0983531,,,
,,0.19600043,,,
,,0.124707215,,,
,,0.038736682,,,
,,-0.11145083,,,
,,-0.13331947,,,
,,-0.056207735,,,
,,-0.03994548,,,
,,-0.24559602,,,
,,-0.055834237,,,
,,0.136533,,,
,,0.17483029,,,
,,0.07028487,,,
,,0.09537282,,,
,,-0.167319,,,
,,-0.17931035,,,
,,-0.11411672,,,
,,0.12525919,,,
,,-0.021797974,,,
,,0.052418143,,,
,,0.15659335,,,
,,0.025232118,,,
,,0.018480184,,,
,,-0.15759508,,,
,,0.19099684,,,
,,-0.034713466,,,
,,0.17301805,,,
,,0.21370256,,,
,,-0.16971958,,,
,,0.2120753,,,
,,-0.060253628,,,
,,0.18764783,,,
,,0.18774001,,,
,,0.014678859,,,
,,-0.21819986,,,
,,-0.026918702,,,
,,0.045314252,,,
,,0.18541603,,,
,,0.008935179,,,
,,-0.019441817,,,
,,0.10262149,,,
,,0.2019241,,,
,,-0.17474306,,,
,,-0.069636665,,,
,,0.12443685,,,
,,-0.24269941,,,
,,-0.05801429,,,
,,0.07021616,,,
,,0.14071906,,,
,,0.018869007,,,
,,0.14354672,,,
,,0.10579368,,,
,,-0.014892794,,,
,,-0.24447334,,,
,,-0.17609228,,,
,,0.22526565,,,
,,-0.067362316,,,
,,-0.15852334,,,
,,0.06959982,,,
,,0.045769475,,,
,,0.036336016,,,
,,0.14648922,,,
,,-0.0666926,,,
,,-0.06311186,,,
,,0.2069113,,,
,,-0.042616084,,,
,,-0.13381411,,,
,,0.05122468,,,
,,0.120951936,,,
,,-0.05574659,,,
,,0.1390847,,,
,,-0.0034693386,,,
,,-0.23832029,,,
,,-0.022451509,,,
,,0.04667145,,,
,,0.08922861,,,
,,-0.01474064,,,
,,0.17357641,,,
,,0.04591739,,,
,,0.09040456,,,
,,-0.02707333,,,
,,0.15417989,,,
,,0.07061257,,,
,,0.23811617,,,
,,-0.15630232,,,
,,-0.19682726,,,
,,-0.008883272,,,
,,-0.22900088,,,
,,0.1978292,,,
,,0.15121837,,,
,,-0.17643337,,,
,,0.07589642,,,
,,-0.06608981,,,
,,-0.1302155,,,
,,-0.14787832,,,
,,-0.18886738,,,
,,-0.13907552,,,
,,0.13670032,,,
,,0.22393031,,,
,,0.093321,,,
,,0.14942914,,,
,,0.050986536,,,
,,0.14794193,,,
,,0.19163896,,,
,,0.0436209,,,
,,-0.06944739,,,
,,-0.06319961,,,
,,0.04755507,,,
,,-0.18676718,,,
,,-0.16425039,,,
,,0.11333988,,,
,,0.11627085,,,
,,0.025748063,,,
,,0.20411703,,,
,,0.08314726,,,
,,0.24714881,,,
,,-0.14993142,,,
,,-0.15320729,,,
,,0.044743776,,,
,,0.2364697,,,
,,-0.23566608,,,
,,-0.08739937,,,
,,0.13862267,,,
,,-0.22300336,,,
,,0.20160784,,,
,,0.004678714,,,
,,0.045028027,,,
,,-0.039365347,,,
,,0.22159095,,,
,,0.111637115,,,
,,0.24930096,,,
,,0.0747217,,,
,,-0.10606511,,,
,,-0.046584554,,,
,,-0.056706704,,,
,,0.052144043,,,
,,0.18406343,,,
,,-0.092175126,,,
,,-0.07758648,,,
,,-0.18979461,,,
,,-0.20191118,,,
,,-0.06152753,,,
,,-0.058150828,,,
,,-0.072508335,,,
,,-0.12683824,,,
,,0.040350124,,,
,,0.10489091,,,
,,0.028211465,,,
,,0.06727847,,,
,,0.019934732,,,
,,-0.1551378,,,
,,-0.12537237,,,
,,0.19585982,,,
,,-0.23549674,,,
,,-0.2023914,,,
,,0.18586572,,,
,,-0.21807027,,,
,,-0.022886792,,,
,,-0.15938704,,,
,,-0.14809799,,,
,,0.26419508,,,
,,-0.09283168,,,
,,0.07286427,,,
,,0.13395704,,,
,,-0.21578285,,,
,,0.14046521,,,
,,0.051960804,,,
,,0.24613944,,,
,,0.23368885,,,
,,0.096332535,,,
,,0.040149856,,,
,,-0.14242934,,,
,,-0.1475933,,,
,,-0.15097615,,,
,,0.23931558,,,
,,-0.0710981,,,
,,-0.22646987,,,
,,0.21501142,,,
,,0.014578082,,,
,,0.14870492,,,
,,-0.09054974,,,
,,-0.13426293,,,
,,0.00040524773,,,
,,-0.106687024,,,
,,-0.22450551,,,
,,-0.18982747,,,
,,0.050291725,,,
,,-0.051539715,,,
,,0.20950828,,,
,,0.111741506,,,
,,0.19059573,,,
,,-0.037159644,,,
,,0.16724728,,,
,,0.14806968,,,
,,-0.24942212,,,
,,-0.03340028,,,
,,0.029472876,,,
,,-0.018178087,,,
,,-0.20089099,,,
,,0.12586783,,,
,,0.21563543,,,
,,-0.04856956,,,
,,0.17084488,,,
,,-0.13259159,,,
,,-0.2382025,,,
,,-0.027696704,,,
,,-0.14071976,,,
,,-0.20026466,,,
,,0.14488722,,,
,,-0.13234913,,,
,,-0.10409097,,,
,,0.09833359,,,
,,0.06303534,,,
,,-0.122698665,,,
,,0.04315426,,,
,,0.16567725,,,
,,-0.22392142,,,
,,-0.13777706,,,
,,-0.0939835,,,
,,0.005238369,,,
,,0.061917663,,,
,,-0.081785716,,,
,,0.002972744,,,
,,-0.17380887,,,
,,-0.2209203,,,
,,0.22791426,,,
,,0.12156905,,,
,,-0.16849118,,,
,,0.21803066,,,
,,-0.01040548,,,
,,0.2014469,,,
,,0.19136849,,,
,,0.005297739,,,
,,-0.080476865,,,
,,-0.20931917,,,
,,0.06910977,,,
,,-0.22126034,,,
,,0.18650052,,,
,,0.2353808,,,
,,-0.16390707,,,
,,0.07856739,,,
,,0.07660347,,,
,,0.120812684,,,
,,0.21743394,,,
,,-0.18615869,,,
,,-0.14098378,,,
,,0.12450349,,,
,,-0.18413363,,,
,,0.11752105,,,
,,0.19118762,,,
,,0.13154076,,,
,,0.22040029,,,
,,-0.005597765,,,
,,0.22239824,,,
,,0.15818691,,,
,,-0.15374604,,,
,,0.041206308,,,
,,-0.21953526,,,
,,-0.14254372,,,
,,-0.11492926,,,
,,-0.16279916,,,
,,0.19212748,,,
,,-0.042219847,,,
,,-0.064494595,,,
,,0.040880453,,,
,,0.11163702,,,
,,0.20043528,,,
,,0.06688171,,,
,,0.10740131,,,
,,0.08804706,,,
,,0.03184953,,,
,,-0.02122166,,,
,,0.24659874,,,
,,0.15396258,,,
,,-0.15498313,,,
,,0.061402947,,,
,,-0.025149435,,,
,,0.12953562,,,
,,0.07342344,,,
,,0.028653385,,,
,,-0.2024173,,,
,,0.030622734,,,
,,-0.033294115,,,
,,0.20598155,,,
,,-0.1559332,,,
,,0.15209624,,,
,,0.12910606,,,
,,-0.026893508,,,
,,-0.07378095,,,
,,0.097899124,,,
,,0.07171433,,,
,,0.1306888,,,
,,-0.19213907,,,
,,-0.009748327,,,
,,0.069755085,,,
,,0.13999163,,,
,,0.14910041,,,
,,0.11895723,,,
,,0.09878107,,,
,,0.07398168,,,
,,0.10020157,,,
,,0.03528903,,,
,,0.038983405,,,
,,-0.21208102,,,
,,0.14328453,,,
,,0.083151646,,,
,,0.09110858,,,
,,-0.23886122,,,
,,-0.030833237,,,
,,0.07775379,,,
,,0.098932564,,,
,,-0.21635245,,,
,,-0.19715704,,,
,,0.1696269,,,
,,-0.14694338,,,
,,0.021838496,,,
,,-0.20125183,,,
,,0.12355656,,,
,,-0.036326636,,,
,,-0.05585535,,,
,,-0.15236846,,,
,,0.13030879,,,
,,0.21682726,,,
,,-0.04674344,,,
,,0.17076233,,,
,,0.24013348,,,
,,0.15200023,,,
,,0.067388415,,,
,,-0.033045266,,,
,,0.15666294,,,
,,-0.16650438,,,
,,-0.009704987,,,
,,0.22807294,,,
,,0.21107878,,,
,,0.17996953,,,
,,-0.14232802,,,
,,-0.13175815,,,
,,0.1186224,,,
,,0.028093109,,,
,,0.024659028,,,
,,-0.15788655,,,
,,-0.07886953,,,
,,-0.053161703,,,
,,0.07135743,,,
,,-0.1424306,,,
,,-0.14821139,,,
,,0.070760414,,,
,,0.03787268,,,
,,-0.11548817,,,
,,-0.033903718,,,
,,0.12019656,,,
,,0.24520268,,,
,,0.069331795,,,
,,-0.14051303,,,
,,-0.21196488,,,
,,0.06926733,,,
,,-0.10621377,,,
,,0.19299309,,,
,,-0.0136418985,,,
,,-0.1172104,,,
,,0.19694827,,,
,,0.10274073,,,
,,-0.041001484,,,
,,0.16088903,,,
,,0.008509195,,,
,,-0.24213094,,,
,,-0.19570154,,,
,,-0.08178917,,,
,,0.124757275,,,
,,0.24465656,,,
,,0.24833444,,,
,,-0.21531253,,,
,,0.18170026,,,
,,0.12853926,,,
,,0.13256682,,,
,,0.10691091,,,
,,0.13101007,,,
,,-0.06522918,,,
,,0.01997644,,,
,,0.0793637,,,
,,0.13017648,,,
,,-0.02445632,,,
,,-0.230226,,,
,,-0.08647072,,,
,,-0.096981466,,,
,,-0.071060084,,,
,,-0.08283198,,,
,,0.16599216,,,
,,-0.19051686,,,
,,0.10263679,,,
,,-0.0010724593,,,
,,0.14272259,,,
,,-0.0108508505,,,
,,0.06409394,,,
,,0.10212832,,,
,,-0.062047478,,,
,,-0.15267172,,,
,,-0.21243434,,,
,,-0.015100101,,,
,,0.15587614,,,
,,-0.07628485,,,
,,0.0025931562,,,
,,0.01457417,,,
,,0.078346886,,,
,,-0.1873959,,,
,,-0.0141941365,,,
,,-0.019199932,,,
,,0.07619155,,,
,,-0.12811267,,,
,,0.24471265,,,
,,-0.2138859,,,
,,0.024351308,,,
,,-0.06582469,,,
,,0.20626558,,,
,,0.10511068,,,
,,-0.032398235,,,
,,-0.0835916,,,
,,0.21110204,,,
,,0.08609007,,,
,,-0.036593106,,,
,,0.20167255,,,
,,0.011597356,,,
,,0.094125435,,,
,,-0.1079947,,,
,,0.0933518,,,
,,-0.15213713,,,
,,-0.21138802,,,
,,-0.19049531,,,
,,-0.19867732,,,
,,-0.074970365,,,
,,0.007239309,,,
,,0.07692647,,,
,,0.0278869,,,
,,-0.22964697,,,
,,-0.016002022,,,
,,-0.23445584,,,
,,0.15634833,,,
,,0.15709318,,,
,,-0.060038112,,,
,,-0.082438216,,,
,,-0.09861995,,,
,,-0.17822048,,,
,,-0.047526997,,,
,,-0.08033221,,,
,,0.03624453,,,
,,-0.122661725,,,
,,-0.035983842,,,
,,-0.16776776,,,
,,-0.1244202,,,
,,-0.13787758,,,
,,-0.07718018,,,
,,-0.10376043,,,
,,-0.24624245,,,
,,0.2215903,,,
,,0.16403325,,,
,,0.11335147,,,
,,0.14403453,,,
,,-0.17253414,,,
,,-0.1347303,,,
,,0.16478226,,,
,,0.20613234,,,
,,0.009872666,,,
,,0.20187145,,,
,,0.06886016,,,
,,-0.10021983,,,
,,-0.17757344,,,
,,0.17096986,,,
,,0.039916974,,,
,,-0.09887596,,,
,,-0.25313437,,,
,,0.0049356567,,,
,,-0.06744535,,,
,,-0.05792253,,,
,,-0.19638896,,,
,,-0.16255431,,,
,,-0.090899356,,,
,,-0.17903227,,,
,,-0.019302351,,,
,,0.004395343,,,
,,0.004604533,,,
,,0.1720824,,,
,,0.110802054,,,
,,-0.116029665,,,
,,0.19919172,,,
,,0.1193528,,,
,,-0.23511067,,,
,,-0.21189159,,,
,,0.036737833,,,
,,-0.23570283,,,
,,0.20678455,,,
,,-0.064186364,,,
,,0.074332036,,,
,,-0.10466063,,,
,,0.008110863,,,
,,0.13060685,,,
,,-0.0581539,,,
,,-0.22122869,,,
,,0.22550319,,,
,,0.20892395,,,
,,0.22268389,,,
,,-0.116539486,,,
,,-0.070691645,,,
,,0.14373168,,,
,,0.11037336,,,
,,-0.03404986,,,
,,0.12590607,,,
,,-0.19671343,,,
,,-0.084734656,,,
,,-0.050400153,,,
,,0.22039925,,,
,,-0.10672383,,,
,,0.1908423,,,
,,0.020591715,,,
,,0.18546924,,,
,,0.22001354,,,
,,-0.21962856,,,
,,-0.13148291,,,
,,0.13776448,,,
,,-0.14231376,,,
,,-0.14856684,,,
,,-0.168281,,,
,,-0.20019326,,,
,,-0.20602854,,,
,,-0.16548109,,,
,,0.04724606,,,
,,-0.052235484,,,
,,0.10802503,,,
,,0.13218707,,,
,,-0.15128112,,,
,,-0.13500445,,,
,,-0.11758193,,,
,,0.13377047,,,
,,0.08708638,,,
,,-0.11857397,,,
,,0.18254216,,,
,,0.17992945,,,
,,-0.21231207,,,
,,0.08828978,,,
,,-0.23695096,,,
,,0.119510755,,,
,,0.22152972,,,
,,-0.12468014,,,
,,-0.017341278,,,
,,0.026742613,,,
,,-0.1917629,,,
,,0.22584906,,,
,,0.21024795,,,
,,0.017583402,,,
,,0.07216491,,,
,,0.2354874,,,
,,-0.19570819,,,
,,-0.18647589,,,
,,-0.02002092,,,
,,0.07067295,,,
,,-0.015241742,,,
,,-0.23439825,,,
,,0.076686874,,,
,,0.23517174,,,
,,0.02564346,,,
,,-0.20127429,,,
,,-0.0970974,,,
,,-0.016643407,,,
,,-0.2288797,,,
,,-0.1988738,,,
,,0.04622248,,,
,,-0.19386551,,,
,,-0.050326087,,,
,,0.10050355,,,
,,-0.03502393,,,
,,0.072368294,,,
,,-0.0678229,,,
,,0.1839463,,,
